%YAML:1.0
my_nb: !!opencv-ml-bayesian
   var_count: 16
   var_all: 16
   cls_labels: !!opencv-matrix
      rows: 1
      cols: 2
      dt: i
      data: [ -1, 1 ]
   count:
      - !!opencv-matrix
         rows: 1
         cols: 16
         dt: i
         data: [ 793, 793, 793, 793, 793, 793, 793, 793, 793, 793, 793,
             793, 793, 793, 793, 793 ]
      - !!opencv-matrix
         rows: 1
         cols: 16
         dt: i
         data: [ 1463, 1463, 1463, 1463, 1463, 1463, 1463, 1463, 1463,
             1463, 1463, 1463, 1463, 1463, 1463, 1463 ]
   sum:
      - !!opencv-matrix
         rows: 1
         cols: 16
         dt: d
         data: [ 2293176., 546614., 243305., 1053729., 263515., 271368.,
             239693., 1228281., 258342., 268278., 220896., 1186847.,
             212131., 693150., 1237995., 651607. ]
      - !!opencv-matrix
         rows: 1
         cols: 16
         dt: d
         data: [ 18297467., 2757429., 1347019., 13486382., 1995827.,
             1634855., 1322706., 15073010., 1400430., 1727627., 1321927.,
             13605149., 1117207., 2757066., 8102291., 4033960. ]
   productsum:
      - !!opencv-matrix
         rows: 16
         cols: 16
         dt: d
         data: [ 1.2987625566000000e+10, 2.6449800190000000e+09,
             1245852453., 5.6127510680000000e+09, 1508315107.,
             1322040316., 1128736420., 5.9870342810000000e+09,
             1307703623., 1412362844., 1166521677.,
             5.8665849510000000e+09, 1112278746., 2.7234972120000000e+09,
             5.8682394990000000e+09, 3.5946307150000000e+09,
             2.6449800190000000e+09, 669167996., 287886058., 1243977103.,
             339730584., 301415465., 268067120., 1292202892., 301239458.,
             321220591., 261143065., 1274584711., 257835970., 633757103.,
             1370294270., 826664228., 1245852453., 287886058.,
             145616497., 594279803., 176447579., 153131163., 133233650.,
             633454344., 141729192., 159045312., 135288871., 630011405.,
             129547880., 301783886., 663364593., 420453284.,
             5.6127510680000000e+09, 1243977103., 594279803.,
             2.8153501150000000e+09, 734661273., 637847234., 551404522.,
             2.9048599230000000e+09, 605741275., 673153335., 562682858.,
             2.8876289470000000e+09, 526861464., 1282052318.,
             2.8582232250000000e+09, 1720208225., 1508315107.,
             339730584., 176447579., 734661273., 239121229., 185752180.,
             159471457., 779862907., 174950181., 201767922., 171768148.,
             799144280., 163770210., 340764708., 797379815., 546937557.,
             1322040316., 301415465., 153131163., 637847234., 185752180.,
             168375920., 144018731., 686950473., 148578894., 168844265.,
             143798410., 695161211., 136645477., 353040145., 731088812.,
             441594380., 1128736420., 268067120., 133233650., 551404522.,
             159471457., 144018731., 129664777., 596524159., 130176945.,
             145572789., 123526258., 589706128., 118479718., 296198848.,
             643344288., 381881922., 5.9870342810000000e+09, 1292202892.,
             633454344., 2.9048599230000000e+09, 779862907., 686950473.,
             596524159., 3.2661373590000000e+09, 659980747., 729211758.,
             606270882., 3.2319822520000000e+09, 573180932., 1461396354.,
             3.1081780790000000e+09, 1835380124., 1307703623.,
             301239458., 141729192., 605741275., 174950181., 148578894.,
             130176945., 659980747., 153274292., 163170930., 133291333.,
             653234692., 130952417., 299390467., 661363791., 418099489.,
             1412362844., 321220591., 159045312., 673153335., 201767922.,
             168844265., 145572789., 729211758., 163170930., 184110634.,
             152613697., 741023275., 147510493., 337006831., 740682171.,
             476444428., 1166521677., 261143065., 135288871., 562682858.,
             171768148., 143798410., 123526258., 606270882., 133291333.,
             152613697., 131063198., 615348007., 123289212., 281636108.,
             622976814., 403113022., 5.8665849510000000e+09, 1274584711.,
             630011405., 2.8876289470000000e+09, 799144280., 695161211.,
             589706128., 3.2319822520000000e+09, 653234692., 741023275.,
             615348007., 3.4482311670000000e+09, 585556350., 1606354021.,
             3.1618449180000000e+09, 1869732493., 1112278746.,
             257835970., 129547880., 526861464., 163770210., 136645477.,
             118479718., 573180932., 130952417., 147510493., 123289212.,
             585556350., 121830587., 269914715., 595776315., 389128363.,
             2.7234972120000000e+09, 633757103., 301783886., 1282052318.,
             340764708., 353040145., 296198848., 1461396354., 299390467.,
             337006831., 281636108., 1606354021., 269914715.,
             1077338874., 1633885590., 834457266.,
             5.8682394990000000e+09, 1370294270., 663364593.,
             2.8582232250000000e+09, 797379815., 731088812., 643344288.,
             3.1081780790000000e+09, 661363791., 740682171., 622976814.,
             3.1618449180000000e+09, 595776315., 1633885590.,
             3.3572668090000000e+09, 1907612427., 3.5946307150000000e+09,
             826664228., 420453284., 1720208225., 546937557., 441594380.,
             381881922., 1835380124., 418099489., 476444428., 403113022.,
             1869732493., 389128363., 834457266., 1907612427.,
             1280004221. ]
      - !!opencv-matrix
         rows: 16
         cols: 16
         dt: d
         data: [ 2.4446301741500000e+11, 3.4467600727000000e+10,
             1.6821163295000000e+10, 1.6526712854900000e+11,
             2.4441778545000000e+10, 2.0124479972000000e+10,
             1.6269139415000000e+10, 1.8503034074000000e+11,
             1.7442734153000000e+10, 2.1314329745000000e+10,
             1.6366623389000000e+10, 1.6600850078400000e+11,
             1.3805779719000000e+10, 3.4666494183000000e+10,
             9.9326913419000000e+10, 4.9551386318000000e+10,
             3.4467600727000000e+10, 5.5517318870000000e+09,
             2.5901129210000000e+09, 2.5333312736000000e+10,
             3.7461974430000000e+09, 3.1286209560000000e+09,
             2.5443625130000000e+09, 2.7912995585000000e+10,
             2.7033436560000000e+09, 3.3041196250000000e+09,
             2.5025527660000000e+09, 2.5213597552000000e+10, 2136671935.,
             5.4006768320000000e+09, 1.5403424408000000e+10,
             7.6535916740000000e+09, 1.6821163295000000e+10,
             2.5901129210000000e+09, 1280582335., 1.2344965015000000e+10,
             1864793947., 1538026473., 1244632900.,
             1.3672713622000000e+10, 1305638557., 1614713771.,
             1245896405., 1.2380719123000000e+10, 1055164561.,
             2.5766202020000000e+09, 7.5178730020000000e+09,
             3.7934404470000000e+09, 1.6526712854900000e+11,
             2.5333312736000000e+10, 1.2344965015000000e+10,
             1.2770757664600000e+11, 1.8309162278000000e+10,
             1.4999408704000000e+10, 1.2125674521000000e+10,
             1.3994475485700000e+11, 1.2742382392000000e+10,
             1.5769407923000000e+10, 1.2064002452000000e+10,
             1.2627860155600000e+11, 1.0153973903000000e+10,
             2.4919333157000000e+10, 7.4586961585000000e+10,
             3.6919792254000000e+10, 2.4441778545000000e+10,
             3.7461974430000000e+09, 1864793947., 1.8309162278000000e+10,
             2.8432233670000000e+09, 2.2717863140000000e+09, 1826334046.,
             2.0417428730000000e+10, 1922900374., 2.4008280670000000e+09,
             1847788771., 1.8670966066000000e+10, 1570215031.,
             3.7319064010000000e+09, 1.1184332680000000e+10,
             5.7017017480000000e+09, 2.0124479972000000e+10,
             3.1286209560000000e+09, 1538026473., 1.4999408704000000e+10,
             2.2717863140000000e+09, 1878551703., 1519397212.,
             1.6671837709000000e+10, 1583126418., 1964204379.,
             1507603234., 1.5142047970000000e+10, 1279759338.,
             3.1336112060000000e+09, 9.1974341080000000e+09,
             4.6102262240000000e+09, 1.6269139415000000e+10,
             2.5443625130000000e+09, 1244632900., 1.2125674521000000e+10,
             1826334046., 1519397212., 1247182054.,
             1.3512376184000000e+10, 1281816988., 1583526145.,
             1215662102., 1.2211241465000000e+10, 1031951385.,
             2.5549621250000000e+09, 7.4707536640000000e+09,
             3.7126971050000000e+09, 1.8503034074000000e+11,
             2.7912995585000000e+10, 1.3672713622000000e+10,
             1.3994475485700000e+11, 2.0417428730000000e+10,
             1.6671837709000000e+10, 1.3512376184000000e+10,
             1.5915932481200000e+11, 1.4367357652000000e+10,
             1.7699455087000000e+10, 1.3506551045000000e+10,
             1.4174410466100000e+11, 1.1360475447000000e+10,
             2.7906811765000000e+10, 8.3026050650000000e+10,
             4.1117828494000000e+10, 1.7442734153000000e+10,
             2.7033436560000000e+09, 1305638557., 1.2742382392000000e+10,
             1922900374., 1583126418., 1281816988.,
             1.4367357652000000e+10, 1394545414., 1695527102.,
             1282426073., 1.2938642898000000e+10, 1093395040.,
             2.6839179160000000e+09, 7.7841380800000000e+09,
             3.9101540070000000e+09, 2.1314329745000000e+10,
             3.3041196250000000e+09, 1614713771., 1.5769407923000000e+10,
             2.4008280670000000e+09, 1964204379., 1583526145.,
             1.7699455087000000e+10, 1695527102., 2096469731.,
             1593649086., 1.6058617992000000e+10, 1355849366.,
             3.2874655180000000e+09, 9.6480810780000000e+09,
             4.8697263930000000e+09, 1.6366623389000000e+10,
             2.5025527660000000e+09, 1245896405., 1.2064002452000000e+10,
             1847788771., 1507603234., 1215662102.,
             1.3506551045000000e+10, 1282426073., 1593649086.,
             1233313439., 1.2257234316000000e+10, 1039764629.,
             2.5083903170000000e+09, 7.3880887000000000e+09,
             3.7442514840000000e+09, 1.6600850078400000e+11,
             2.5213597552000000e+10, 1.2380719123000000e+10,
             1.2627860155600000e+11, 1.8670966066000000e+10,
             1.5142047970000000e+10, 1.2211241465000000e+10,
             1.4174410466100000e+11, 1.2938642898000000e+10,
             1.6058617992000000e+10, 1.2257234316000000e+10,
             1.2908015118100000e+11, 1.0354251823000000e+10,
             2.5280929875000000e+10, 7.5601746749000000e+10,
             3.7549730085000000e+10, 1.3805779719000000e+10, 2136671935.,
             1055164561., 1.0153973903000000e+10, 1570215031.,
             1279759338., 1031951385., 1.1360475447000000e+10,
             1093395040., 1355849366., 1039764629.,
             1.0354251823000000e+10, 891338419., 2139969467.,
             6.2585503240000000e+09, 3.1855889410000000e+09,
             3.4666494183000000e+10, 5.4006768320000000e+09,
             2.5766202020000000e+09, 2.4919333157000000e+10,
             3.7319064010000000e+09, 3.1336112060000000e+09,
             2.5549621250000000e+09, 2.7906811765000000e+10,
             2.6839179160000000e+09, 3.2874655180000000e+09,
             2.5083903170000000e+09, 2.5280929875000000e+10, 2139969467.,
             5.6218752800000000e+09, 1.5530092881000000e+10,
             7.6275301390000000e+09, 9.9326913419000000e+10,
             1.5403424408000000e+10, 7.5178730020000000e+09,
             7.4586961585000000e+10, 1.1184332680000000e+10,
             9.1974341080000000e+09, 7.4707536640000000e+09,
             8.3026050650000000e+10, 7.7841380800000000e+09,
             9.6480810780000000e+09, 7.3880887000000000e+09,
             7.5601746749000000e+10, 6.2585503240000000e+09,
             1.5530092881000000e+10, 4.5766746785000000e+10,
             2.2632117551000000e+10, 4.9551386318000000e+10,
             7.6535916740000000e+09, 3.7934404470000000e+09,
             3.6919792254000000e+10, 5.7017017480000000e+09,
             4.6102262240000000e+09, 3.7126971050000000e+09,
             4.1117828494000000e+10, 3.9101540070000000e+09,
             4.8697263930000000e+09, 3.7442514840000000e+09,
             3.7549730085000000e+10, 3.1855889410000000e+09,
             7.6275301390000000e+09, 2.2632117551000000e+10,
             1.1524912976000000e+10 ]
   avg:
      - !!opencv-matrix
         rows: 1
         cols: 16
         dt: d
         data: [ 2.8917730138713746e+03, 6.8929886506935691e+02,
             3.0681588902900376e+02, 1.3287881462799496e+03,
             3.3230138713745271e+02, 3.4220428751576293e+02,
             3.0226103404791928e+02, 1.5489041614123582e+03,
             3.2577805800756619e+02, 3.3830769230769232e+02,
             2.7855737704918033e+02, 1.4966544766708701e+03,
             2.6750441361916774e+02, 8.7408575031525857e+02,
             1.5611538461538462e+03, 8.2169861286254729e+02 ]
      - !!opencv-matrix
         rows: 1
         cols: 16
         dt: d
         data: [ 1.2506812713602187e+04, 1.8847771701982228e+03,
             9.2072385509227615e+02, 9.2183062200956938e+03,
             1.3642016404647984e+03, 1.1174675324675325e+03,
             9.0410526315789468e+02, 1.0302809295967190e+04,
             9.5723171565276823e+02, 1.1808796992481202e+03,
             9.0357279562542715e+02, 9.2994866712235125e+03,
             7.6364114832535881e+02, 1.8845290498974709e+03,
             5.5381346548188658e+03, 2.7573205741626793e+03 ]
   inv_eigen_values:
      - !!opencv-matrix
         rows: 1
         cols: 16
         dt: d
         data: [ 6.5318738511014851e-08, 7.0530360643991376e-07,
             2.1108973732635010e-06, 2.2091707506608360e-06,
             4.4411000837850091e-06, 8.0032958754280867e-06,
             1.3172878051745914e-05, 1.6439260580394122e-05,
             1.0041509784156168e-04, 1.1896286871751492e-04,
             2.8109458369632930e-04, 3.3594913556881669e-04,
             4.1573553331521147e-04, 5.0217081744752614e-04,
             8.4460996595565082e-04, 9.4229473969831301e-04 ]
      - !!opencv-matrix
         rows: 1
         cols: 16
         dt: d
         data: [ 7.7162403465912980e-08, 3.6454323169568036e-07,
             5.4778432948452749e-07, 1.1226479984307528e-06,
             2.9863901978365046e-06, 4.9602197219956900e-06,
             1.2043666955471721e-05, 3.0905986970460230e-05,
             4.7793959998683440e-05, 9.8326323855372756e-05,
             1.5851789593419009e-04, 1.7317120683720084e-04,
             2.5752131765330880e-04, 2.8687940202352599e-04,
             3.9789267825986261e-04, 8388608. ]
   cov_rotate_mats:
      - !!opencv-matrix
         rows: 16
         cols: 16
         dt: d
         data: [ 6.9321648089253307e-01, 1.2857998573501775e-01,
             6.8594425044817123e-02, 3.2072780597882816e-01,
             9.6688038355344147e-02, 7.0127405496311884e-02,
             5.8024539734397002e-02, 3.1213176576030394e-01,
             6.8300873987334629e-02, 8.1088234487152716e-02,
             6.8168980891719383e-02, 3.2823065376813298e-01,
             6.4324269272471660e-02, 1.0499372174624316e-01,
             3.0559021576343676e-01, 2.1935748142927131e-01,
             -6.7301864073468287e-01, 5.5164711991342939e-04,
             3.7112734548563890e-02, 1.1898251011652680e-01,
             7.2505489702098511e-02, 6.7419156139800235e-02,
             6.2813325971798034e-02, 2.2698736141027973e-01,
             9.4400339841174807e-03, 5.1682878527321952e-02,
             5.2869473214637724e-02, 4.5379634118075823e-01,
             4.9312848395263377e-02, 2.9557865065782357e-01,
             3.7862587567918410e-01, 1.4696143440269815e-01,
             1.8633069323062432e-01, 6.6319866349546217e-02,
             6.4273511655397178e-03, -3.7423778202884955e-01,
             -7.5740242413714992e-02, 5.1057579590142198e-02,
             2.8319854297405477e-02, -3.9880952304176609e-01,
             -2.9162228625174046e-02, -2.9927558183477972e-02,
             -2.3102167414419790e-02, -1.3825103276053508e-01,
             -3.5922487190315059e-03, 7.2061913401764766e-01,
             3.2695856733710049e-01, -7.0660535957720302e-02,
             -1.3396007538004998e-01, 3.1739047927617836e-01,
             1.4956383785067409e-01, 9.2313735743929815e-02,
             1.9196197534806167e-01, 1.1170583329683141e-01,
             1.4385883149613277e-01, -2.3798686122811449e-01,
             9.2432360913712555e-02, 1.0641177168861270e-01,
             1.0873742096736695e-01, -4.9846840594453057e-01,
             1.2445776104449638e-01, -2.6940539875911307e-01,
             3.5287209378891315e-01, 4.8064187197894975e-01,
             -7.2225028530079297e-02, 1.6018560921927652e-01,
             -5.8498242435647406e-02, 6.0697440525922841e-01,
             -2.4427981380182215e-01, -2.3753788122475559e-02,
             2.6244911707167050e-02, 7.2780599765335297e-02,
             -8.2937832200701417e-02, -1.3716803107488645e-01,
             -1.1844602611181440e-01, -3.3993134205059211e-01,
             -1.5509951424740454e-01, 7.2009196977291759e-02,
             2.9570859314532943e-01, -5.0901883547948390e-01,
             4.9156433872295943e-02, -3.0177183619516368e-01,
             -4.9492550175805842e-03, -4.9536747652480706e-01,
             -9.5300381663692674e-02, 3.0602456295001100e-02,
             1.1454501508893895e-01, 5.2474202725763064e-01,
             -1.1747881674057912e-02, -3.6746882880576572e-02,
             -7.3600672241455395e-03, -2.4103758641781470e-01,
             -1.3706978989302827e-02, -2.4469626974101200e-01,
             4.6945975169770926e-01, -1.5004100870321205e-01,
             -2.2233400098951410e-02, 7.8461570776451717e-01,
             -7.9897080049495403e-02, -3.2356677892641766e-01,
             -1.9582602839729479e-01, -1.6972744883292193e-01,
             -4.7378821993451128e-02, 4.5720207902308831e-02,
             1.7805846325706493e-01, 1.9868883240229920e-02,
             -1.3873985686815563e-01, 2.5407932251399817e-01,
             2.2570533751317776e-02, -2.0906381452193118e-01,
             6.0218229267810335e-02, -1.9382092562616840e-01,
             -7.2775514681254289e-02, 2.5274404914631027e-01,
             9.8028185759924572e-02, -2.7157942497513635e-02,
             2.1551609137322743e-02, 2.0192225552458618e-02,
             7.6709432892232829e-03, 5.7729087008740321e-01,
             1.5330862633420647e-01, 7.7341073893867726e-02,
             3.2263583591802023e-02, -4.0177084836263005e-01,
             5.7947533610121588e-02, 4.3981842535853932e-01,
             -4.2482681425015351e-01, 1.3061158092409786e-01,
             8.2697385908581354e-03, 1.0597072312421316e-01,
             -3.9589334364336604e-01, -3.4525080804134085e-02,
             5.2681683875833119e-01, -3.7180230784046953e-01,
             -2.4087944105211059e-01, 1.1056121002431109e-01,
             -3.1658642428472700e-01, -2.5213117418588893e-01,
             -1.9127442593158089e-01, -8.0337512115524062e-02,
             -3.0577688290400007e-01, 5.3197041725116585e-02,
             9.7215188184370277e-02, 1.7928005308302131e-01,
             -1.2317218031178195e-02, -2.3294102459850413e-01,
             -3.4095210869217096e-01, 9.6896004138826028e-02,
             3.0534115747943444e-02, -3.6220623138600272e-01,
             -2.4504224885687587e-01, -5.9029864253292610e-02,
             6.9197338105338291e-01, 3.0447867881662277e-01,
             -7.1460912825070458e-02, -8.6925019470419390e-02,
             1.4853205892996285e-01, 4.8058957348940827e-02,
             1.2335127040238061e-01, -2.2575549780498430e-02,
             -4.5850222737427136e-03, 4.7366618992944295e-02,
             -4.5222176883547960e-02, 7.9596903788844953e-04,
             -2.8187875279799229e-01, -9.9570914554948001e-02,
             -6.0680241643021560e-01, 4.6695516781617867e-02,
             -4.3065840195766031e-01, 3.6770761452608230e-01,
             4.1913088713864416e-01, -6.4306334249369726e-02,
             1.5912402590927413e-01, -8.8567652422471919e-03,
             8.4997534842830930e-02, 5.3150982802979786e-02,
             -6.6212632154553424e-03, 8.6740010135400614e-02,
             -1.0018591801597239e-01, -6.1456527293076664e-02,
             3.7367767888407427e-01, 6.2922660889652471e-01,
             -2.8252664898134167e-01, -5.2111239581635917e-03,
             2.0551530789818270e-01, 2.1507161306870340e-01,
             1.8180163815169040e-01, 7.2512983573212592e-03,
             -4.0566068695098312e-01, -4.2114650627441241e-02,
             7.2418759919137031e-03, -2.7427207544427512e-01,
             1.8847613638912786e-03, -8.5213078624328141e-04,
             -3.9695395452490928e-01, 2.3007315606845106e-02,
             -5.2115262374356937e-02, 4.4277548388337762e-01,
             -5.5403575743511145e-02, 3.0636447574069681e-02,
             -2.1239514000539259e-01, 1.7814025266503644e-01,
             -6.0532410689429361e-01, -2.8869606903915507e-02,
             4.3392776659001414e-01, -8.4106802730532487e-03,
             -2.3216469614137720e-02, 7.8231967943183281e-02,
             -9.6584698741774486e-03, -3.7106042985062031e-02,
             3.4444093113192009e-01, 7.1339993448376960e-03,
             -5.7802659275554120e-02, 1.5803059695931659e-01,
             -6.0335137277124795e-01, 1.8920400935320904e-02,
             2.2917373974985009e-01, -5.9904021725407164e-01,
             -1.6977510433346435e-01, -2.1044788838682259e-03,
             1.7428721309500259e-01, -2.0859321876891140e-02,
             7.4526721286487713e-02, 1.0281319493143085e-01,
             -3.5950076351862715e-03, -1.5466222955952198e-02,
             -4.4189495743517249e-01, 1.4450616330865564e-02,
             -5.5274375104479267e-01, 1.9331652682089898e-01,
             3.5798101326419571e-02, 1.1226247317373312e-02,
             1.3323081477430709e-01, -2.1754050393015156e-01,
             1.1793299011672459e-01, 6.1350287273128860e-03,
             -4.2695058185508505e-01, 4.2155189887425404e-04,
             -2.3760949699325219e-02, 4.4507496247941714e-01,
             -3.7753165259375361e-03, -7.2313750530755963e-02,
             4.4217857861071364e-01, -3.7158825298522712e-03,
             -1.6155352785178856e-01, -1.0521391700440774e-01,
             -1.4350707717794578e-01, -4.3456358840702715e-03,
             -3.8556165385434035e-02, 4.1993279496036179e-01,
             -5.3503532474492665e-01, 6.8836290628812337e-03,
             -4.9337454816025372e-01, -5.5818006811524726e-03,
             3.5988684347448605e-02, 1.8042446879872209e-01 ]
      - !!opencv-matrix
         rows: 16
         cols: 16
         dt: d
         data: [ 8.9731426263214908e-01, 1.2250261969042794e-02,
             3.9024807332024352e-03, -2.2601897195450821e-01,
             -2.4552336763366312e-02, -1.2290245312677125e-02,
             -1.0261313754386084e-02, -2.4666407311537772e-01,
             3.5018887729766017e-04, -1.1272532045529804e-02,
             -5.0780703001368629e-03, -2.6525307370243362e-01,
             -4.3602118750927380e-03, 2.5430665913612333e-02,
             -9.6633978722543895e-02, -3.6863052579251640e-02,
             2.8397654043095394e-01, -1.6021276048935590e-01,
             -6.8424984943760953e-02, 2.9170321177867303e-01,
             -9.1790746269868828e-02, -8.9625669112589165e-02,
             -7.4540014060973811e-02, 7.2508128830073892e-01,
             -4.5418994769372625e-02, -7.2000155640056768e-02,
             -5.9867978488681209e-02, 1.8922382810021890e-01,
             -7.0697446398675756e-02, -1.8609952354191320e-01,
             -3.4351325677803801e-01, -2.2779333811729813e-01,
             -4.0220068208720081e-02, -7.6885430875842375e-02,
             -1.2917880250217902e-02, -8.8094742423079264e-01,
             3.7202152280316925e-02, 6.7490123944856555e-03,
             8.9739387420818637e-03, 3.7860733139504243e-01,
             4.3892724012167199e-02, 4.8203378323563063e-02,
             2.9967556969890837e-02, 2.2851255080813629e-01,
             3.2718831043811729e-02, 7.3325196628244313e-02,
             5.7754054209815983e-02, 6.5064076758009196e-02,
             1.5467360902539887e-01, -2.2868987089285997e-01,
             -5.2937293039064394e-02, 3.9348219589830924e-02,
             6.2177455159618679e-02, -4.6344964303915936e-02,
             -7.9381927920403050e-02, -4.0593791288520326e-01,
             -7.1359904959198819e-02, -2.9402732601123825e-02,
             -1.7470283664374333e-02, 8.3901642816085575e-01,
             -1.2297834315967966e-02, -1.7536168386765003e-01,
             -9.5175893195297949e-03, 3.3486285833610414e-02,
             6.3376583959196126e-02, 1.8704854163130877e-01,
             -1.0317057329876997e-01, 3.9666362242314832e-02,
             -3.1023713163701616e-01, -6.0756220912197269e-02,
             1.6096352964108093e-02, 2.0553241686477635e-02,
             -5.4906210981786684e-02, -1.2878394326294521e-01,
             -1.4711302060285522e-01, 1.8841254112121750e-01,
             -1.2804454355398015e-01, 5.4745646490429600e-01,
             4.0791387935811185e-01, -5.3751232361746304e-01,
             1.0016909825503982e-01, -5.8328706312317113e-01,
             -1.6066392962236237e-02, 7.9794595921867537e-02,
             8.8308665996477548e-02, 5.8897738031282093e-02,
             1.0375900666692682e-01, 1.3387403679848717e-01,
             -1.7179608086809409e-01, -1.1800481300278486e-01,
             2.1042265229457884e-02, -1.7084265445576816e-01,
             -5.0397515728474764e-02, -2.2204893264218306e-01,
             6.8916490908623884e-01, 5.7433136796981726e-02,
             -4.6506567042825360e-02, -5.8512555055226456e-01,
             5.6165830830814549e-02, 7.0670678685007177e-02,
             7.2973847791888785e-02, 2.7829255471628775e-02,
             -3.8626395543568719e-02, -3.9178042047365275e-02,
             -1.0502569238828657e-01, -5.0683292532605319e-02,
             9.3490629223664232e-02, -5.0291049558676443e-02,
             8.1069352384385104e-02, 6.8999552706418787e-01,
             -3.2820522407410602e-01, 1.5144669228806104e-01,
             6.9713085968149138e-02, 3.4317999042591524e-01,
             -1.5807545420569183e-01, 3.8640771791885339e-02,
             4.4521608977664523e-01, -1.9568681772843824e-01,
             -1.9478323953076251e-01, 1.2629679985957998e-01,
             -4.7471742844283854e-01, -3.6505174720138373e-01,
             -1.6550632974392215e-01, 2.9138620081953611e-02,
             -1.0085140093477114e-01, 1.5801299544654956e-01,
             8.1336351033836837e-02, 3.6313771340326778e-01,
             3.0161261076255479e-02, -9.9348530664507564e-02,
             -3.9990722693009928e-01, 7.4623539504704281e-02,
             2.0573852974331650e-01, -3.3911939790052781e-01,
             -4.4702996463030048e-01, 2.6704895456431024e-02,
             5.4093366035698642e-01, 3.1161990976348480e-01,
             -1.7465410766184719e-01, -5.2963707731953226e-02,
             -1.8738953840649327e-02, 9.6862129467697330e-02,
             1.6158603821411927e-01, 8.3531925777041369e-02,
             1.8478767119587368e-02, 6.0660219111696959e-02,
             3.4938668501396863e-01, 1.4914124811208697e-02,
             -3.3721951335729827e-01, -2.2823530704347453e-01,
             -6.0073696769331641e-01, 4.0467414249011860e-02,
             -2.0446448777776349e-01, 1.1485240314302815e-01,
             5.0792381744288895e-01, 1.8739771519315817e-03,
             2.7655584269202355e-02, -1.3313694511939171e-02,
             1.4303248834537946e-01, 1.0472448972627203e-01,
             5.7333594549273323e-02, 1.9478780755407835e-02,
             -1.6364663168720758e-01, 5.4849345217881776e-02,
             -6.6365502011737365e-01, 8.5596897026447363e-03,
             1.0631891584325580e-01, 6.3196720216845803e-02,
             -1.7128250134478950e-02, 1.9994611629279166e-02,
             -3.6424640756580795e-01, 5.0585717550616374e-02,
             1.5215852821435347e-01, 3.6026957787420197e-02,
             5.0413522623629144e-02, 5.8975992541475231e-01,
             -7.6833116628783633e-03, -3.4312404420130581e-02,
             4.3300793714649233e-01, -7.2690434246631365e-03,
             -1.7805971096939471e-02, -5.3885927919870746e-01,
             2.0419508709819620e-01, -1.0007051895107005e-02,
             4.3405955168766802e-01, -5.3062571377034418e-01,
             -3.2041814968389107e-02, 1.8655015633534215e-02,
             -3.9339687666288935e-03, -7.2941352636655774e-03,
             1.5850818399197771e-02, 8.4064284502606584e-02,
             8.9601013319005086e-03, -1.9653063441117665e-02,
             3.9731639067798746e-01, -7.1548075272684971e-03,
             2.4224626521149747e-02, 5.5760308535436620e-01,
             -4.2995888460414022e-01, 2.0465311710571383e-02,
             2.2971375744560291e-01, -1.8296693075945328e-01,
             -3.8094404978446073e-01, 1.7199451068183633e-02,
             -3.2952237198270906e-01, 1.2235399600532307e-02,
             1.8496459447265318e-02, 6.3985524941168506e-02,
             1.9739241886250179e-02, 2.3422152331295146e-02,
             -1.5596672324030744e-01, 1.9316388531792197e-02,
             -9.0380255097202558e-02, -1.8136587539559303e-02,
             2.3093678708785606e-01, 8.1561681979793448e-03,
             9.7601135643885756e-02, 8.2580168694165665e-02,
             3.3826718114648480e-01, 3.3043804246279833e-02,
             -8.4911030189257108e-01, 6.4403953433206526e-02,
             -3.6539821646097294e-02, 2.3266670821651400e-01,
             -1.5435806170127097e-03, 4.5547869433211513e-02,
             -4.6079273532916321e-01, 1.8040071064583593e-03,
             -1.0038801728847649e-01, 3.3482633606060458e-01,
             -1.5192911385420863e-01, -4.9278926938901924e-03,
             2.7219873551820689e-01, -5.7454412340712246e-01,
             4.3901374977315771e-01, 7.3852490689908269e-04,
             2.0426837574914411e-01, -2.8415725982720030e-02,
             -4.4424698944266683e-03, 2.8586060519348477e-02,
             2.4999999999998873e-01, 2.4999999999999636e-01,
             2.5000000000001787e-01, 2.4999999999998704e-01,
             2.5000000000011330e-01, 2.5000000000012346e-01,
             2.5000000000000316e-01, 2.4999999999999198e-01,
             2.4999999999999695e-01, 2.4999999999998918e-01,
             2.4999999999996658e-01, 2.4999999999999203e-01,
             2.4999999999994033e-01, 2.5000000000000844e-01,
             2.4999999999996048e-01, 2.4999999999992356e-01 ]
   c: !!opencv-matrix
      rows: 1
      cols: 2
      dt: d
      data: [ 1.6695749613582350e+02, 1.5086071942222867e+02 ]
